<?xml version="1.0"?>
<opencv_storage>
<!-- Created using Computer Vision Toolbox(tm) for MATLAB(R) -->
<!-- Version 9.7.0.1296695 (R2019b) Update 4 -->
<!-- Compatible with OpenCV 3.4 -->
<cascade>
  <stageType>BOOST</stageType>
  <featureType>LBP</featureType>
  <height>43</height>
  <width>32</width>
  <stageParams>
    <boostType>GAB</boostType>
    <minHitRate>9.9989998340606689e-01</minHitRate>
    <maxFalseAlarm>9.9999999747524271e-07</maxFalseAlarm>
    <weightTrimRate>9.4999999999999996e-01</weightTrimRate>
    <maxDepth>1</maxDepth>
    <maxWeakCount>100</maxWeakCount></stageParams>
  <featureParams>
    <maxCatCount>256</maxCatCount>
    <featSize>1</featSize></featureParams>
  <stageNum>3</stageNum>
  <stages>
    <!-- stage 0 -->
    <_>
      <maxWeakCount>17</maxWeakCount>
      <stageThreshold>7.4860209226608276e-01</stageThreshold>
      <weakClassifiers>
        <_>
          <internalNodes>
            0 -1 11 -1975193892 928182582 -922694210 -2108577 168549000
            -1190557696 -1148453938 -1073750385</internalNodes>
          <leafValues>
            -8.4647303819656372e-01 4.6451613306999207e-01</leafValues></_>
        <_>
          <internalNodes>
            0 -1 29 -1232933167 -213593984 -260042727 -188166000
            -1281780805 -1441560440 -74939672 -151728672</internalNodes>
          <leafValues>
            -7.5227445363998413e-01 5.3954619169235229e-01</leafValues></_>
        <_>
          <internalNodes>
            0 -1 33 -716840242 -774995264 262784 2001576386 -503056694
            1342185858 -745805602 1406108302</internalNodes>
          <leafValues>
            -6.7436748743057251e-01 5.5774402618408203e-01</leafValues></_>
        <_>
          <internalNodes>
            0 -1 28 -124589586 -757313203 -791341720 -175763328 43563468
            538038522 -242231314 -258418226</internalNodes>
          <leafValues>
            -6.4032882452011108e-01 5.8164185285568237e-01</leafValues></_>
        <_>
          <internalNodes>
            0 -1 8 -258479706 -209477293 1074873550 -636583930
            1980477698 364544 -1013975377 -252737073</internalNodes>
          <leafValues>
            -6.3380664587020874e-01 5.8826065063476563e-01</leafValues></_>
        <_>
          <internalNodes>
            0 -1 36 -1665932036 -2117431116 -1316829154 -69287792
            -132746705 -1861648384 -393576294 -103489072</internalNodes>
          <leafValues>
            -6.9254821538925171e-01 5.6665509939193726e-01</leafValues></_>
        <_>
          <internalNodes>
            0 -1 47 -213009920 890339851 553648642 -1123954045
            -766533592 -938275829 336046238 460284715</internalNodes>
          <leafValues>
            -7.2980916500091553e-01 5.7122111320495605e-01</leafValues></_>
        <_>
          <internalNodes>
            0 -1 53 -1998867902 -1073245562 -1853325232 -1606107068
            -242841596 65857 -1802910940 -428895760</internalNodes>
          <leafValues>
            -7.2858589887619019e-01 5.5101168155670166e-01</leafValues></_>
        <_>
          <internalNodes>
            0 -1 1 -792401682 -250558922 -805305890 1493226060
            1216908762 -904494963 -880228194 92506591</internalNodes>
          <leafValues>
            -6.9133603572845459e-01 5.3484570980072021e-01</leafValues></_>
        <_>
          <internalNodes>
            0 -1 43 -1360347550 -1103298576 -1359151108 2080096244
            -50424330 -98305 -1107501601 -188711432</internalNodes>
          <leafValues>
            -5.9367871284484863e-01 6.2305259704589844e-01</leafValues></_>
        <_>
          <internalNodes>
            0 -1 4 -154148338 -229973424 -2013209594 -970932224
            -385367750 403178114 285434042 -464522262</internalNodes>
          <leafValues>
            -6.2031787633895874e-01 6.0719990730285645e-01</leafValues></_>
        <_>
          <internalNodes>
            0 -1 39 1912594318 2012606410 -1157714328 -201412690
            -167774226 1699084101 -1220546900 -135413620</internalNodes>
          <leafValues>
            -5.9008163213729858e-01 6.3309156894683838e-01</leafValues></_>
        <_>
          <internalNodes>
            0 -1 9 -1056670452 1259376832 1091576900 -1357574144
            143202522 -115197816 717753519 -1732218319</internalNodes>
          <leafValues>
            -7.8031188249588013e-01 4.9432820081710815e-01</leafValues></_>
        <_>
          <internalNodes>
            0 -1 16 71755676 487617203 -1073642865 -548293364 177547992
            -1357315264 -1995592961 -1342232189</internalNodes>
          <leafValues>
            -6.9815647602081299e-01 5.2095431089401245e-01</leafValues></_>
        <_>
          <internalNodes>
            0 -1 34 -1030635026 -246476672 -2146365046 -258190588
            -2096905045 287834240 -1602164038 -527191893</internalNodes>
          <leafValues>
            -6.7438745498657227e-01 5.5791902542114258e-01</leafValues></_>
        <_>
          <internalNodes>
            0 -1 50 1742205930 386957702 -1073643504 18073619 -666318706
            1124335624 679784584 1138739275</internalNodes>
          <leafValues>
            -6.1965835094451904e-01 6.3682025671005249e-01</leafValues></_>
        <_>
          <internalNodes>
            0 -1 52 -1563692532 1682046982 -2147450880 -195780592
            -928349936 8421386 -1031140655 -1325604028</internalNodes>
          <leafValues>
            -7.8371006250381470e-01 4.8989963531494141e-01</leafValues></_></weakClassifiers></_>
    <!-- stage 1 -->
    <_>
      <maxWeakCount>21</maxWeakCount>
      <stageThreshold>6.5111964941024780e-01</stageThreshold>
      <weakClassifiers>
        <_>
          <internalNodes>
            0 -1 44 -615255606 -208276028 16826780 1968302875 1474267786
            1359224832 1464187071 2002121519</internalNodes>
          <leafValues>
            -7.3547589778900146e-01 3.0332681536674500e-01</leafValues></_>
        <_>
          <internalNodes>
            0 -1 51 -223612784 -141822960 -1589344251 -750534375
            -76691324 -1996423168 1215922184 1600110671</internalNodes>
          <leafValues>
            -6.8552482128143311e-01 3.9076083898544312e-01</leafValues></_>
        <_>
          <internalNodes>
            0 -1 38 -71041223 -238836757 -914092927 -40531177 -74721204
            -74639149 1753522380 -51053977</internalNodes>
          <leafValues>
            -5.8586829900741577e-01 4.6525278687477112e-01</leafValues></_>
        <_>
          <internalNodes>
            0 -1 19 -204999026 2010362662 2080112622 -206851570
            -414218787 1163722750 -134217809 1397473422</internalNodes>
          <leafValues>
            -5.0492715835571289e-01 5.7415449619293213e-01</leafValues></_>
        <_>
          <internalNodes>
            0 -1 49 1935537116 287109528 -1073620523 -774548860
            151774126 663715851 559005832 1665515658</internalNodes>
          <leafValues>
            -5.7942736148834229e-01 4.5460185408592224e-01</leafValues></_>
        <_>
          <internalNodes>
            0 -1 10 -392698150 -377302078 -787948462 -41877040
            -879187462 -2002548278 -1423729740 -235408464</internalNodes>
          <leafValues>
            -6.4657473564147949e-01 4.0875944495201111e-01</leafValues></_>
        <_>
          <internalNodes>
            0 -1 26 -246941234 1373520218 -1068461672 -242843070
            -2130079510 352420360 -205157746 1950929774</internalNodes>
          <leafValues>
            -6.2560999393463135e-01 4.6174541115760803e-01</leafValues></_>
        <_>
          <internalNodes>
            0 -1 2 -397480050 -73874798 35103 1375790784 184506
            -2013099894 1211377674 1208962635</internalNodes>
          <leafValues>
            -6.6192597150802612e-01 4.0014633536338806e-01</leafValues></_>
        <_>
          <internalNodes>
            0 -1 22 1929425744 -1806327488 1561399573 526352768
            1493821620 -1194784086 457378490 -1424029006</internalNodes>
          <leafValues>
            -5.3824120759963989e-01 4.8520269989967346e-01</leafValues></_>
        <_>
          <internalNodes>
            0 -1 12 -206314553 2128538270 -671154182 1470342022
            -1384261636 1861812187 -939679752 1896327886</internalNodes>
          <leafValues>
            -4.8303657770156860e-01 5.4976296424865723e-01</leafValues></_>
        <_>
          <internalNodes>
            0 -1 60 -275519709 -1610375040 -784119536 939950336 26351716
            8617994 411160804 -2068987904</internalNodes>
          <leafValues>
            -6.6755181550979614e-01 4.1355216503143311e-01</leafValues></_>
        <_>
          <internalNodes>
            0 -1 56 -230428467 -1710014463 553877663 -1336491640
            -1702751540 -91717631 -268375894 -863082492</internalNodes>
          <leafValues>
            -5.2130472660064697e-01 5.1370263099670410e-01</leafValues></_>
        <_>
          <internalNodes>
            0 -1 55 -363613186 1364435085 -528367458 -784080758
            -292560254 1376356352 -1970552818 1938280906</internalNodes>
          <leafValues>
            -5.1820772886276245e-01 5.3897058963775635e-01</leafValues></_>
        <_>
          <internalNodes>
            0 -1 13 1107487434 1442378566 -1054834647 1426080010
            1342347913 -1182621508 958487209 1630052354</internalNodes>
          <leafValues>
            -7.5302529335021973e-01 3.9824506640434265e-01</leafValues></_>
        <_>
          <internalNodes>
            0 -1 37 -381173597 -960331375 1476444306 -628731638
            -519528351 1174618178 864691280 -256968156</internalNodes>
          <leafValues>
            -6.4487814903259277e-01 4.1102227568626404e-01</leafValues></_>
        <_>
          <internalNodes>
            0 -1 45 1628807940 866222394 1342324932 1901297861
            -633091692 1342185504 595639210 298565838</internalNodes>
          <leafValues>
            -5.9508037567138672e-01 4.7195771336555481e-01</leafValues></_>
        <_>
          <internalNodes>
            0 -1 35 -1336196115 1367507026 268521606 -226836046
            -1954020554 277356544 -628391660 -218992264</internalNodes>
          <leafValues>
            -6.7221999168395996e-01 4.2164614796638489e-01</leafValues></_>
        <_>
          <internalNodes>
            0 -1 27 -482114014 255514692 1527021825 -552364641
            1611358837 -651947248 -2107931972 -317987309</internalNodes>
          <leafValues>
            -6.8682754039764404e-01 4.1999545693397522e-01</leafValues></_>
        <_>
          <internalNodes>
            0 -1 5 294972266 1461321988 -788516583 1434568448
            -2013061909 -1954529143 1342311083 -825895228</internalNodes>
          <leafValues>
            -6.1927318572998047e-01 4.6334445476531982e-01</leafValues></_>
        <_>
          <internalNodes>
            0 -1 24 -1148732420 -1089777516 151332052 -553180964
            -778061123 -989753344 823492708 2068870638</internalNodes>
          <leafValues>
            -7.4764132499694824e-01 3.8507318496704102e-01</leafValues></_>
        <_>
          <internalNodes>
            0 -1 14 -205268322 1918345307 -2138996664 1939169284
            -939421312 1359478792 -2118008690 1359538690</internalNodes>
          <leafValues>
            -6.6240000724792480e-01 4.2851626873016357e-01</leafValues></_></weakClassifiers></_>
    <!-- stage 2 -->
    <_>
      <maxWeakCount>24</maxWeakCount>
      <stageThreshold>4.0221199393272400e-01</stageThreshold>
      <weakClassifiers>
        <_>
          <internalNodes>
            0 -1 40 -35659873 -146620336 -805072645 -147484413
            -1551185479 -645332416 -1161133878 -4417964</internalNodes>
          <leafValues>
            -6.8351829051971436e-01 3.0222842097282410e-01</leafValues></_>
        <_>
          <internalNodes>
            0 -1 3 -288363742 -368340629 -1337961404 -896090010
            -502570383 1778958346 -509357920 -117513402</internalNodes>
          <leafValues>
            -5.9133547544479370e-01 3.6379662156105042e-01</leafValues></_>
        <_>
          <internalNodes>
            0 -1 42 -245894494 -1651133489 16777472 -672417905
            1968960472 1929509376 -213407073 2010098667</internalNodes>
          <leafValues>
            -5.0009596347808838e-01 4.5627212524414063e-01</leafValues></_>
        <_>
          <internalNodes>
            0 -1 17 628437789 235188716 1093925695 -141036802 2081781116
            -1154363376 -13894209 -1376261447</internalNodes>
          <leafValues>
            -5.7796525955200195e-01 3.9473873376846313e-01</leafValues></_>
        <_>
          <internalNodes>
            0 -1 59 -775160946 -690696944 538984832 1997796744
            -1976183904 -100588736 2053890176 -398987373</internalNodes>
          <leafValues>
            -4.8413667082786560e-01 4.6088698506355286e-01</leafValues></_>
        <_>
          <internalNodes>
            0 -1 54 -70561201 -124317520 -603799053 -753790438 -70581990
            -653688687 -225791268 -118961452</internalNodes>
          <leafValues>
            -5.9445887804031372e-01 3.8969987630844116e-01</leafValues></_>
        <_>
          <internalNodes>
            0 -1 0 1709223931 -403592224 2143096477 2012326816
            -134250497 -1073758209 -167813649 -1040195225</internalNodes>
          <leafValues>
            -4.0915808081626892e-01 5.7349568605422974e-01</leafValues></_>
        <_>
          <internalNodes>
            0 -1 31 1700770508 1398114926 1409323088 194814126
            1086804655 21528712 -12744054 1397619466</internalNodes>
          <leafValues>
            -6.7116743326187134e-01 3.6567464470863342e-01</leafValues></_>
        <_>
          <internalNodes>
            0 -1 32 -1008786914 538083331 -1073217259 -1441906670
            -1339522748 680132608 -592786704 -530388704</internalNodes>
          <leafValues>
            -6.9851469993591309e-01 3.5025060176849365e-01</leafValues></_>
        <_>
          <internalNodes>
            0 -1 58 -11052786 -2092183351 33732770 -1358724990
            -1026645492 -75290461 1350625806 -360787393</internalNodes>
          <leafValues>
            -6.1627531051635742e-01 3.4801188111305237e-01</leafValues></_>
        <_>
          <internalNodes>
            0 -1 21 1388580884 315622324 26019327 263987532 -99585032
            -1826897526 728768713 -1627444664</internalNodes>
          <leafValues>
            -6.1761921644210815e-01 3.8815757632255554e-01</leafValues></_>
        <_>
          <internalNodes>
            0 -1 20 -1007303381 -450969536 554713808 -703409854
            -1196750291 1154711557 -519904604 -252284122</internalNodes>
          <leafValues>
            -6.7242914438247681e-01 3.4621807932853699e-01</leafValues></_>
        <_>
          <internalNodes>
            0 -1 41 -645617872 -1660890586 -1853717227 456753291
            -1378251588 -1987524607 807061949 221122599</internalNodes>
          <leafValues>
            -7.3767989873886108e-01 3.0741104483604431e-01</leafValues></_>
        <_>
          <internalNodes>
            0 -1 25 1565446902 2044179915 1342276160 -745676598
            323011227 1141113370 1881258891 1475163018</internalNodes>
          <leafValues>
            -6.1046081781387329e-01 3.6720672249794006e-01</leafValues></_>
        <_>
          <internalNodes>
            0 -1 6 -1249773430 -364756848 336639621 -35630299 -670289698
            -475332477 -536826180 -923467141</internalNodes>
          <leafValues>
            -5.4101598262786865e-01 4.3148705363273621e-01</leafValues></_>
        <_>
          <internalNodes>
            0 -1 48 -1001659910 1611972999 16896212 1347998102
            -1341935395 1493925888 -1030768388 -238952016</internalNodes>
          <leafValues>
            -5.6599348783493042e-01 4.2205825448036194e-01</leafValues></_>
        <_>
          <internalNodes>
            0 -1 57 -493106112 1646647298 335564806 -804470564
            -2145202174 1342742528 -1039433564 -455022556</internalNodes>
          <leafValues>
            -6.5773963928222656e-01 3.7499722838401794e-01</leafValues></_>
        <_>
          <internalNodes>
            0 -1 30 -145571478 -803600373 -1862188901 -1084763775
            -1065353046 -2122121216 -790974032 -206786112</internalNodes>
          <leafValues>
            -5.8321088552474976e-01 4.2270079255104065e-01</leafValues></_>
        <_>
          <internalNodes>
            0 -1 7 -487790784 -423444176 -1073722992 -824180414
            1099563539 50331776 -1031708608 -998849983</internalNodes>
          <leafValues>
            -6.8643784523010254e-01 3.5451892018318176e-01</leafValues></_>
        <_>
          <internalNodes>
            0 -1 15 -784215574 -645545320 268439944 -786669544
            -1023299176 1640030876 285655432 1889362270</internalNodes>
          <leafValues>
            -6.4270883798599243e-01 3.8342949748039246e-01</leafValues></_>
        <_>
          <internalNodes>
            0 -1 61 -37753053 -1460748307 2130640698 -219255242
            -304091296 225968127 -403193970 -399081604</internalNodes>
          <leafValues>
            -4.7542849183082581e-01 5.0407010316848755e-01</leafValues></_>
        <_>
          <internalNodes>
            0 -1 18 9182684 -1626308597 -1814621699 2076623311 277053904
            -239591262 -1842135880 267190368</internalNodes>
          <leafValues>
            -6.4383286237716675e-01 3.7543943524360657e-01</leafValues></_>
        <_>
          <internalNodes>
            0 -1 23 1779421710 -2147479101 822116864 -1169149938
            55214148 1073823873 -1870515692 -420027772</internalNodes>
          <leafValues>
            -7.0489901304244995e-01 3.1741750240325928e-01</leafValues></_>
        <_>
          <internalNodes>
            0 -1 46 -787627651 1343570387 -1728036782 -940404728
            -930573934 -922713646 -1341619756 -241792618</internalNodes>
          <leafValues>
            -5.4796183109283447e-01 4.3267995119094849e-01</leafValues></_></weakClassifiers></_></stages>
  <features>
    <_>
      <rect>
        0 0 4 5</rect></_>
    <_>
      <rect>
        0 5 5 8</rect></_>
    <_>
      <rect>
        0 8 3 9</rect></_>
    <_>
      <rect>
        0 11 1 1</rect></_>
    <_>
      <rect>
        0 28 3 5</rect></_>
    <_>
      <rect>
        1 0 5 4</rect></_>
    <_>
      <rect>
        2 0 9 3</rect></_>
    <_>
      <rect>
        2 14 1 1</rect></_>
    <_>
      <rect>
        2 32 3 2</rect></_>
    <_>
      <rect>
        3 0 7 3</rect></_>
    <_>
      <rect>
        3 2 4 1</rect></_>
    <_>
      <rect>
        3 6 8 9</rect></_>
    <_>
      <rect>
        4 18 3 6</rect></_>
    <_>
      <rect>
        5 18 4 5</rect></_>
    <_>
      <rect>
        5 20 3 6</rect></_>
    <_>
      <rect>
        5 27 3 5</rect></_>
    <_>
      <rect>
        6 4 6 8</rect></_>
    <_>
      <rect>
        6 11 7 4</rect></_>
    <_>
      <rect>
        6 18 7 5</rect></_>
    <_>
      <rect>
        6 22 3 5</rect></_>
    <_>
      <rect>
        6 39 2 1</rect></_>
    <_>
      <rect>
        7 23 6 4</rect></_>
    <_>
      <rect>
        7 26 7 3</rect></_>
    <_>
      <rect>
        7 35 1 1</rect></_>
    <_>
      <rect>
        8 7 8 11</rect></_>
    <_>
      <rect>
        8 28 3 4</rect></_>
    <_>
      <rect>
        8 34 3 3</rect></_>
    <_>
      <rect>
        9 10 7 3</rect></_>
    <_>
      <rect>
        9 29 3 1</rect></_>
    <_>
      <rect>
        10 1 1 1</rect></_>
    <_>
      <rect>
        10 2 1 1</rect></_>
    <_>
      <rect>
        10 24 3 6</rect></_>
    <_>
      <rect>
        11 25 1 1</rect></_>
    <_>
      <rect>
        11 26 3 5</rect></_>
    <_>
      <rect>
        11 36 3 1</rect></_>
    <_>
      <rect>
        11 37 1 1</rect></_>
    <_>
      <rect>
        12 3 1 1</rect></_>
    <_>
      <rect>
        12 39 1 1</rect></_>
    <_>
      <rect>
        13 0 6 3</rect></_>
    <_>
      <rect>
        13 30 3 2</rect></_>
    <_>
      <rect>
        14 0 1 1</rect></_>
    <_>
      <rect>
        14 3 6 8</rect></_>
    <_>
      <rect>
        14 26 3 5</rect></_>
    <_>
      <rect>
        16 1 1 1</rect></_>
    <_>
      <rect>
        16 25 3 6</rect></_>
    <_>
      <rect>
        16 31 3 3</rect></_>
    <_>
      <rect>
        16 40 5 1</rect></_>
    <_>
      <rect>
        17 4 5 6</rect></_>
    <_>
      <rect>
        17 22 3 1</rect></_>
    <_>
      <rect>
        18 16 3 8</rect></_>
    <_>
      <rect>
        19 22 4 7</rect></_>
    <_>
      <rect>
        20 11 4 7</rect></_>
    <_>
      <rect>
        20 32 1 1</rect></_>
    <_>
      <rect>
        20 37 1 1</rect></_>
    <_>
      <rect>
        21 3 1 1</rect></_>
    <_>
      <rect>
        21 20 3 5</rect></_>
    <_>
      <rect>
        22 5 1 1</rect></_>
    <_>
      <rect>
        22 34 1 1</rect></_>
    <_>
      <rect>
        23 2 3 3</rect></_>
    <_>
      <rect>
        23 22 3 6</rect></_>
    <_>
      <rect>
        24 25 1 1</rect></_>
    <_>
      <rect>
        28 12 1 1</rect></_></features></cascade>
</opencv_storage>
